digraph Tree {
node [shape=box] ;
0 [label="X[6] <= 0.5\ngini = 0.469\nsamples = 712\nvalue = [444, 268]"] ;
1 [label="X[1] <= 1.5\ngini = 0.303\nsamples = 467\nvalue = [380, 87]"] ;
0 -> 1 [labeldistance=2.5, labelangle=45, headlabel="True"] ;
2 [label="X[0] <= 187.0\ngini = 0.451\nsamples = 93\nvalue = [61, 32]"] ;
1 -> 2 ;
3 [label="X[5] <= 41.3\ngini = 0.124\nsamples = 15\nvalue = [14, 1]"] ;
2 -> 3 ;
4 [label="X[0] <= 60.5\ngini = 0.444\nsamples = 3\nvalue = [2, 1]"] ;
3 -> 4 ;
5 [label="gini = 0.0\nsamples = 1\nvalue = [0, 1]"] ;
4 -> 5 ;
6 [label="gini = 0.0\nsamples = 2\nvalue = [2, 0]"] ;
4 -> 6 ;
7 [label="gini = 0.0\nsamples = 12\nvalue = [12, 0]"] ;
3 -> 7 ;
8 [label="X[5] <= 26.144\ngini = 0.479\nsamples = 78\nvalue = [47, 31]"] ;
2 -> 8 ;
9 [label="gini = 0.0\nsamples = 7\nvalue = [7, 0]"] ;
8 -> 9 ;
10 [label="X[0] <= 586.0\ngini = 0.492\nsamples = 71\nvalue = [40, 31]"] ;
8 -> 10 ;
11 [label="X[2] <= 53.5\ngini = 0.444\nsamples = 42\nvalue = [28, 14]"] ;
10 -> 11 ;
12 [label="X[4] <= 1.5\ngini = 0.48\nsamples = 35\nvalue = [21, 14]"] ;
11 -> 12 ;
13 [label="X[0] <= 235.5\ngini = 0.444\nsamples = 30\nvalue = [20, 10]"] ;
12 -> 13 ;
14 [label="gini = 0.0\nsamples = 2\nvalue = [0, 2]"] ;
13 -> 14 ;
15 [label="X[0] <= 495.5\ngini = 0.408\nsamples = 28\nvalue = [20, 8]"] ;
13 -> 15 ;
16 [label="X[0] <= 361.5\ngini = 0.463\nsamples = 22\nvalue = [14, 8]"] ;
15 -> 16 ;
17 [label="X[0] <= 256.0\ngini = 0.278\nsamples = 12\nvalue = [10, 2]"] ;
16 -> 17 ;
18 [label="X[2] <= 40.5\ngini = 0.5\nsamples = 2\nvalue = [1, 1]"] ;
17 -> 18 ;
19 [label="gini = 0.0\nsamples = 1\nvalue = [0, 1]"] ;
18 -> 19 ;
20 [label="gini = 0.0\nsamples = 1\nvalue = [1, 0]"] ;
18 -> 20 ;
21 [label="X[2] <= 14.5\ngini = 0.18\nsamples = 10\nvalue = [9, 1]"] ;
17 -> 21 ;
22 [label="X[5] <= 30.75\ngini = 0.375\nsamples = 4\nvalue = [3, 1]"] ;
21 -> 22 ;
23 [label="X[8] <= 0.5\ngini = 0.5\nsamples = 2\nvalue = [1, 1]"] ;
22 -> 23 ;
24 [label="gini = 0.0\nsamples = 1\nvalue = [0, 1]"] ;
23 -> 24 ;
25 [label="gini = 0.0\nsamples = 1\nvalue = [1, 0]"] ;
23 -> 25 ;
26 [label="gini = 0.0\nsamples = 2\nvalue = [2, 0]"] ;
22 -> 26 ;
27 [label="gini = 0.0\nsamples = 6\nvalue = [6, 0]"] ;
21 -> 27 ;
28 [label="X[2] <= 23.5\ngini = 0.48\nsamples = 10\nvalue = [4, 6]"] ;
16 -> 28 ;
29 [label="gini = 0.0\nsamples = 2\nvalue = [2, 0]"] ;
28 -> 29 ;
30 [label="X[0] <= 453.5\ngini = 0.375\nsamples = 8\nvalue = [2, 6]"] ;
28 -> 30 ;
31 [label="X[0] <= 433.0\ngini = 0.48\nsamples = 5\nvalue = [2, 3]"] ;
30 -> 31 ;
32 [label="gini = 0.0\nsamples = 2\nvalue = [0, 2]"] ;
31 -> 32 ;
33 [label="X[2] <= 51.0\ngini = 0.444\nsamples = 3\nvalue = [2, 1]"] ;
31 -> 33 ;
34 [label="gini = 0.0\nsamples = 2\nvalue = [2, 0]"] ;
33 -> 34 ;
35 [label="gini = 0.0\nsamples = 1\nvalue = [0, 1]"] ;
33 -> 35 ;
36 [label="gini = 0.0\nsamples = 3\nvalue = [0, 3]"] ;
30 -> 36 ;
37 [label="gini = 0.0\nsamples = 6\nvalue = [6, 0]"] ;
15 -> 37 ;
38 [label="X[5] <= 181.525\ngini = 0.32\nsamples = 5\nvalue = [1, 4]"] ;
12 -> 38 ;
39 [label="gini = 0.0\nsamples = 4\nvalue = [0, 4]"] ;
38 -> 39 ;
40 [label="gini = 0.0\nsamples = 1\nvalue = [1, 0]"] ;
38 -> 40 ;
41 [label="gini = 0.0\nsamples = 7\nvalue = [7, 0]"] ;
11 -> 41 ;
42 [label="X[0] <= 741.5\ngini = 0.485\nsamples = 29\nvalue = [12, 17]"] ;
10 -> 42 ;
43 [label="X[2] <= 13.5\ngini = 0.375\nsamples = 20\nvalue = [5, 15]"] ;
42 -> 43 ;
44 [label="X[0] <= 726.5\ngini = 0.444\nsamples = 3\nvalue = [2, 1]"] ;
43 -> 44 ;
45 [label="gini = 0.0\nsamples = 2\nvalue = [2, 0]"] ;
44 -> 45 ;
46 [label="gini = 0.0\nsamples = 1\nvalue = [0, 1]"] ;
44 -> 46 ;
47 [label="X[0] <= 666.5\ngini = 0.291\nsamples = 17\nvalue = [3, 14]"] ;
43 -> 47 ;
48 [label="gini = 0.0\nsamples = 7\nvalue = [0, 7]"] ;
47 -> 48 ;
49 [label="X[2] <= 45.5\ngini = 0.42\nsamples = 10\nvalue = [3, 7]"] ;
47 -> 49 ;
50 [label="X[0] <= 676.0\ngini = 0.219\nsamples = 8\nvalue = [1, 7]"] ;
49 -> 50 ;
51 [label="gini = 0.0\nsamples = 1\nvalue = [1, 0]"] ;
50 -> 51 ;
52 [label="gini = 0.0\nsamples = 7\nvalue = [0, 7]"] ;
50 -> 52 ;
53 [label="gini = 0.0\nsamples = 2\nvalue = [2, 0]"] ;
49 -> 53 ;
54 [label="X[5] <= 29.85\ngini = 0.346\nsamples = 9\nvalue = [7, 2]"] ;
42 -> 54 ;
55 [label="gini = 0.0\nsamples = 2\nvalue = [0, 2]"] ;
54 -> 55 ;
56 [label="gini = 0.0\nsamples = 7\nvalue = [7, 0]"] ;
54 -> 56 ;
57 [label="X[4] <= 0.5\ngini = 0.251\nsamples = 374\nvalue = [319, 55]"] ;
1 -> 57 ;
58 [label="X[5] <= 43.283\ngini = 0.217\nsamples = 315\nvalue = [276, 39]"] ;
57 -> 58 ;
59 [label="X[0] <= 581.5\ngini = 0.203\nsamples = 306\nvalue = [271, 35]"] ;
58 -> 59 ;
60 [label="X[0] <= 569.5\ngini = 0.254\nsamples = 194\nvalue = [165, 29]"] ;
59 -> 60 ;
61 [label="X[0] <= 37.5\ngini = 0.237\nsamples = 189\nvalue = [163, 26]"] ;
60 -> 61 ;
62 [label="X[1] <= 2.5\ngini = 0.444\nsamples = 9\nvalue = [6, 3]"] ;
61 -> 62 ;
63 [label="X[2] <= 34.5\ngini = 0.444\nsamples = 3\nvalue = [1, 2]"] ;
62 -> 63 ;
64 [label="gini = 0.0\nsamples = 2\nvalue = [0, 2]"] ;
63 -> 64 ;
65 [label="gini = 0.0\nsamples = 1\nvalue = [1, 0]"] ;
63 -> 65 ;
66 [label="X[0] <= 33.5\ngini = 0.278\nsamples = 6\nvalue = [5, 1]"] ;
62 -> 66 ;
67 [label="gini = 0.0\nsamples = 5\nvalue = [5, 0]"] ;
66 -> 67 ;
68 [label="gini = 0.0\nsamples = 1\nvalue = [0, 1]"] ;
66 -> 68 ;
69 [label="X[2] <= 44.5\ngini = 0.223\nsamples = 180\nvalue = [157, 23]"] ;
61 -> 69 ;
70 [label="X[2] <= 38.5\ngini = 0.24\nsamples = 165\nvalue = [142, 23]"] ;
69 -> 70 ;
71 [label="X[2] <= 32.25\ngini = 0.225\nsamples = 155\nvalue = [135, 20]"] ;
70 -> 71 ;
72 [label="X[2] <= 31.0\ngini = 0.246\nsamples = 139\nvalue = [119, 20]"] ;
71 -> 72 ;
73 [label="X[0] <= 302.5\ngini = 0.233\nsamples = 134\nvalue = [116, 18]"] ;
72 -> 73 ;
74 [label="X[0] <= 264.5\ngini = 0.291\nsamples = 68\nvalue = [56, 12]"] ;
73 -> 74 ;
75 [label="X[0] <= 81.5\ngini = 0.228\nsamples = 61\nvalue = [53, 8]"] ;
74 -> 75 ;
76 [label="gini = 0.0\nsamples = 12\nvalue = [12, 0]"] ;
75 -> 76 ;
77 [label="X[0] <= 85.0\ngini = 0.273\nsamples = 49\nvalue = [41, 8]"] ;
75 -> 77 ;
78 [label="gini = 0.0\nsamples = 1\nvalue = [0, 1]"] ;
77 -> 78 ;
79 [label="X[8] <= 0.5\ngini = 0.249\nsamples = 48\nvalue = [41, 7]"] ;
77 -> 79 ;
80 [label="X[5] <= 7.825\ngini = 0.201\nsamples = 44\nvalue = [39, 5]"] ;
79 -> 80 ;
81 [label="X[0] <= 151.0\ngini = 0.375\nsamples = 12\nvalue = [9, 3]"] ;
80 -> 81 ;
82 [label="X[5] <= 7.096\ngini = 0.5\nsamples = 6\nvalue = [3, 3]"] ;
81 -> 82 ;
83 [label="gini = 0.0\nsamples = 2\nvalue = [2, 0]"] ;
82 -> 83 ;
84 [label="X[9] <= 0.5\ngini = 0.375\nsamples = 4\nvalue = [1, 3]"] ;
82 -> 84 ;
85 [label="gini = 0.0\nsamples = 3\nvalue = [0, 3]"] ;
84 -> 85 ;
86 [label="gini = 0.0\nsamples = 1\nvalue = [1, 0]"] ;
84 -> 86 ;
87 [label="gini = 0.0\nsamples = 6\nvalue = [6, 0]"] ;
81 -> 87 ;
88 [label="X[0] <= 220.5\ngini = 0.117\nsamples = 32\nvalue = [30, 2]"] ;
80 -> 88 ;
89 [label="gini = 0.0\nsamples = 22\nvalue = [22, 0]"] ;
88 -> 89 ;
90 [label="X[0] <= 221.5\ngini = 0.32\nsamples = 10\nvalue = [8, 2]"] ;
88 -> 90 ;
91 [label="gini = 0.0\nsamples = 1\nvalue = [0, 1]"] ;
90 -> 91 ;
92 [label="X[0] <= 228.0\ngini = 0.198\nsamples = 9\nvalue = [8, 1]"] ;
90 -> 92 ;
93 [label="X[0] <= 226.5\ngini = 0.375\nsamples = 4\nvalue = [3, 1]"] ;
92 -> 93 ;
94 [label="gini = 0.0\nsamples = 3\nvalue = [3, 0]"] ;
93 -> 94 ;
95 [label="gini = 0.0\nsamples = 1\nvalue = [0, 1]"] ;
93 -> 95 ;
96 [label="gini = 0.0\nsamples = 5\nvalue = [5, 0]"] ;
92 -> 96 ;
97 [label="X[1] <= 2.5\ngini = 0.5\nsamples = 4\nvalue = [2, 2]"] ;
79 -> 97 ;
98 [label="gini = 0.0\nsamples = 2\nvalue = [2, 0]"] ;
97 -> 98 ;
99 [label="gini = 0.0\nsamples = 2\nvalue = [0, 2]"] ;
97 -> 99 ;
100 [label="X[2] <= 23.5\ngini = 0.49\nsamples = 7\nvalue = [3, 4]"] ;
74 -> 100 ;
101 [label="X[0] <= 283.5\ngini = 0.48\nsamples = 5\nvalue = [3, 2]"] ;
100 -> 101 ;
102 [label="gini = 0.0\nsamples = 2\nvalue = [2, 0]"] ;
101 -> 102 ;
103 [label="X[5] <= 7.973\ngini = 0.444\nsamples = 3\nvalue = [1, 2]"] ;
101 -> 103 ;
104 [label="gini = 0.0\nsamples = 1\nvalue = [1, 0]"] ;
103 -> 104 ;
105 [label="gini = 0.0\nsamples = 2\nvalue = [0, 2]"] ;
103 -> 105 ;
106 [label="gini = 0.0\nsamples = 2\nvalue = [0, 2]"] ;
100 -> 106 ;
107 [label="X[8] <= 0.5\ngini = 0.165\nsamples = 66\nvalue = [60, 6]"] ;
73 -> 107 ;
108 [label="X[2] <= 28.5\ngini = 0.107\nsamples = 53\nvalue = [50, 3]"] ;
107 -> 108 ;
109 [label="X[0] <= 448.5\ngini = 0.078\nsamples = 49\nvalue = [47, 2]"] ;
108 -> 109 ;
110 [label="X[0] <= 443.5\ngini = 0.142\nsamples = 26\nvalue = [24, 2]"] ;
109 -> 110 ;
111 [label="X[5] <= 7.846\ngini = 0.077\nsamples = 25\nvalue = [24, 1]"] ;
110 -> 111 ;
112 [label="X[5] <= 7.785\ngini = 0.165\nsamples = 11\nvalue = [10, 1]"] ;
111 -> 112 ;
113 [label="gini = 0.0\nsamples = 9\nvalue = [9, 0]"] ;
112 -> 113 ;
114 [label="X[2] <= 21.5\ngini = 0.5\nsamples = 2\nvalue = [1, 1]"] ;
112 -> 114 ;
115 [label="gini = 0.0\nsamples = 1\nvalue = [0, 1]"] ;
114 -> 115 ;
116 [label="gini = 0.0\nsamples = 1\nvalue = [1, 0]"] ;
114 -> 116 ;
117 [label="gini = 0.0\nsamples = 14\nvalue = [14, 0]"] ;
111 -> 117 ;
118 [label="gini = 0.0\nsamples = 1\nvalue = [0, 1]"] ;
110 -> 118 ;
119 [label="gini = 0.0\nsamples = 23\nvalue = [23, 0]"] ;
109 -> 119 ;
120 [label="X[0] <= 500.0\ngini = 0.375\nsamples = 4\nvalue = [3, 1]"] ;
108 -> 120 ;
121 [label="gini = 0.0\nsamples = 3\nvalue = [3, 0]"] ;
120 -> 121 ;
122 [label="gini = 0.0\nsamples = 1\nvalue = [0, 1]"] ;
120 -> 122 ;
123 [label="X[0] <= 540.0\ngini = 0.355\nsamples = 13\nvalue = [10, 3]"] ;
107 -> 123 ;
124 [label="X[2] <= 24.5\ngini = 0.18\nsamples = 10\nvalue = [9, 1]"] ;
123 -> 124 ;
125 [label="gini = 0.0\nsamples = 7\nvalue = [7, 0]"] ;
124 -> 125 ;
126 [label="X[3] <= 0.5\ngini = 0.444\nsamples = 3\nvalue = [2, 1]"] ;
124 -> 126 ;
127 [label="gini = 0.0\nsamples = 1\nvalue = [0, 1]"] ;
126 -> 127 ;
128 [label="gini = 0.0\nsamples = 2\nvalue = [2, 0]"] ;
126 -> 128 ;
129 [label="X[0] <= 561.5\ngini = 0.444\nsamples = 3\nvalue = [1, 2]"] ;
123 -> 129 ;
130 [label="gini = 0.0\nsamples = 2\nvalue = [0, 2]"] ;
129 -> 130 ;
131 [label="gini = 0.0\nsamples = 1\nvalue = [1, 0]"] ;
129 -> 131 ;
132 [label="X[5] <= 7.988\ngini = 0.48\nsamples = 5\nvalue = [3, 2]"] ;
72 -> 132 ;
133 [label="gini = 0.0\nsamples = 2\nvalue = [2, 0]"] ;
132 -> 133 ;
134 [label="X[0] <= 318.5\ngini = 0.444\nsamples = 3\nvalue = [1, 2]"] ;
132 -> 134 ;
135 [label="gini = 0.0\nsamples = 1\nvalue = [1, 0]"] ;
134 -> 135 ;
136 [label="gini = 0.0\nsamples = 2\nvalue = [0, 2]"] ;
134 -> 136 ;
137 [label="gini = 0.0\nsamples = 16\nvalue = [16, 0]"] ;
71 -> 137 ;
138 [label="X[0] <= 263.0\ngini = 0.42\nsamples = 10\nvalue = [7, 3]"] ;
70 -> 138 ;
139 [label="gini = 0.0\nsamples = 3\nvalue = [3, 0]"] ;
138 -> 139 ;
140 [label="X[0] <= 470.5\ngini = 0.49\nsamples = 7\nvalue = [4, 3]"] ;
138 -> 140 ;
141 [label="X[0] <= 375.5\ngini = 0.375\nsamples = 4\nvalue = [1, 3]"] ;
140 -> 141 ;
142 [label="X[0] <= 319.5\ngini = 0.5\nsamples = 2\nvalue = [1, 1]"] ;
141 -> 142 ;
143 [label="gini = 0.0\nsamples = 1\nvalue = [0, 1]"] ;
142 -> 143 ;
144 [label="gini = 0.0\nsamples = 1\nvalue = [1, 0]"] ;
142 -> 144 ;
145 [label="gini = 0.0\nsamples = 2\nvalue = [0, 2]"] ;
141 -> 145 ;
146 [label="gini = 0.0\nsamples = 3\nvalue = [3, 0]"] ;
140 -> 146 ;
147 [label="gini = 0.0\nsamples = 15\nvalue = [15, 0]"] ;
69 -> 147 ;
148 [label="X[2] <= 25.5\ngini = 0.48\nsamples = 5\nvalue = [2, 3]"] ;
60 -> 148 ;
149 [label="gini = 0.0\nsamples = 2\nvalue = [2, 0]"] ;
148 -> 149 ;
150 [label="gini = 0.0\nsamples = 3\nvalue = [0, 3]"] ;
148 -> 150 ;
151 [label="X[5] <= 8.831\ngini = 0.101\nsamples = 112\nvalue = [106, 6]"] ;
59 -> 151 ;
152 [label="X[5] <= 7.91\ngini = 0.153\nsamples = 72\nvalue = [66, 6]"] ;
151 -> 152 ;
153 [label="X[0] <= 762.5\ngini = 0.1\nsamples = 57\nvalue = [54, 3]"] ;
152 -> 153 ;
154 [label="gini = 0.0\nsamples = 33\nvalue = [33, 0]"] ;
153 -> 154 ;
155 [label="X[0] <= 764.0\ngini = 0.219\nsamples = 24\nvalue = [21, 3]"] ;
153 -> 155 ;
156 [label="gini = 0.0\nsamples = 1\nvalue = [0, 1]"] ;
155 -> 156 ;
157 [label="X[5] <= 7.763\ngini = 0.159\nsamples = 23\nvalue = [21, 2]"] ;
155 -> 157 ;
158 [label="X[0] <= 831.0\ngini = 0.26\nsamples = 13\nvalue = [11, 2]"] ;
157 -> 158 ;
159 [label="X[0] <= 827.5\ngini = 0.375\nsamples = 8\nvalue = [6, 2]"] ;
158 -> 159 ;
160 [label="X[0] <= 802.0\ngini = 0.245\nsamples = 7\nvalue = [6, 1]"] ;
159 -> 160 ;
161 [label="gini = 0.0\nsamples = 4\nvalue = [4, 0]"] ;
160 -> 161 ;
162 [label="X[0] <= 812.0\ngini = 0.444\nsamples = 3\nvalue = [2, 1]"] ;
160 -> 162 ;
163 [label="gini = 0.0\nsamples = 1\nvalue = [0, 1]"] ;
162 -> 163 ;
164 [label="gini = 0.0\nsamples = 2\nvalue = [2, 0]"] ;
162 -> 164 ;
165 [label="gini = 0.0\nsamples = 1\nvalue = [0, 1]"] ;
159 -> 165 ;
166 [label="gini = 0.0\nsamples = 5\nvalue = [5, 0]"] ;
158 -> 166 ;
167 [label="gini = 0.0\nsamples = 10\nvalue = [10, 0]"] ;
157 -> 167 ;
168 [label="X[5] <= 7.988\ngini = 0.32\nsamples = 15\nvalue = [12, 3]"] ;
152 -> 168 ;
169 [label="X[2] <= 31.5\ngini = 0.444\nsamples = 3\nvalue = [1, 2]"] ;
168 -> 169 ;
170 [label="gini = 0.0\nsamples = 2\nvalue = [0, 2]"] ;
169 -> 170 ;
171 [label="gini = 0.0\nsamples = 1\nvalue = [1, 0]"] ;
169 -> 171 ;
172 [label="X[5] <= 8.513\ngini = 0.153\nsamples = 12\nvalue = [11, 1]"] ;
168 -> 172 ;
173 [label="gini = 0.0\nsamples = 8\nvalue = [8, 0]"] ;
172 -> 173 ;
174 [label="X[2] <= 24.0\ngini = 0.375\nsamples = 4\nvalue = [3, 1]"] ;
172 -> 174 ;
175 [label="gini = 0.0\nsamples = 3\nvalue = [3, 0]"] ;
174 -> 175 ;
176 [label="gini = 0.0\nsamples = 1\nvalue = [0, 1]"] ;
174 -> 176 ;
177 [label="gini = 0.0\nsamples = 40\nvalue = [40, 0]"] ;
151 -> 177 ;
178 [label="X[1] <= 2.5\ngini = 0.494\nsamples = 9\nvalue = [5, 4]"] ;
58 -> 178 ;
179 [label="gini = 0.0\nsamples = 3\nvalue = [3, 0]"] ;
178 -> 179 ;
180 [label="X[2] <= 30.0\ngini = 0.444\nsamples = 6\nvalue = [2, 4]"] ;
178 -> 180 ;
181 [label="X[0] <= 340.0\ngini = 0.5\nsamples = 4\nvalue = [2, 2]"] ;
180 -> 181 ;
182 [label="gini = 0.0\nsamples = 1\nvalue = [1, 0]"] ;
181 -> 182 ;
183 [label="X[0] <= 760.0\ngini = 0.444\nsamples = 3\nvalue = [1, 2]"] ;
181 -> 183 ;
184 [label="gini = 0.0\nsamples = 2\nvalue = [0, 2]"] ;
183 -> 184 ;
185 [label="gini = 0.0\nsamples = 1\nvalue = [1, 0]"] ;
183 -> 185 ;
186 [label="gini = 0.0\nsamples = 2\nvalue = [0, 2]"] ;
180 -> 186 ;
187 [label="X[2] <= 10.0\ngini = 0.395\nsamples = 59\nvalue = [43, 16]"] ;
57 -> 187 ;
188 [label="X[3] <= 2.5\ngini = 0.496\nsamples = 33\nvalue = [18, 15]"] ;
187 -> 188 ;
189 [label="X[2] <= 0.21\ngini = 0.124\nsamples = 15\nvalue = [1, 14]"] ;
188 -> 189 ;
190 [label="gini = 0.0\nsamples = 1\nvalue = [1, 0]"] ;
189 -> 190 ;
191 [label="gini = 0.0\nsamples = 14\nvalue = [0, 14]"] ;
189 -> 191 ;
192 [label="X[2] <= 2.5\ngini = 0.105\nsamples = 18\nvalue = [17, 1]"] ;
188 -> 192 ;
193 [label="gini = 0.0\nsamples = 10\nvalue = [10, 0]"] ;
192 -> 193 ;
194 [label="X[2] <= 3.5\ngini = 0.219\nsamples = 8\nvalue = [7, 1]"] ;
192 -> 194 ;
195 [label="gini = 0.0\nsamples = 1\nvalue = [0, 1]"] ;
194 -> 195 ;
196 [label="gini = 0.0\nsamples = 7\nvalue = [7, 0]"] ;
194 -> 196 ;
197 [label="X[8] <= 0.5\ngini = 0.074\nsamples = 26\nvalue = [25, 1]"] ;
187 -> 197 ;
198 [label="gini = 0.0\nsamples = 22\nvalue = [22, 0]"] ;
197 -> 198 ;
199 [label="X[0] <= 654.5\ngini = 0.375\nsamples = 4\nvalue = [3, 1]"] ;
197 -> 199 ;
200 [label="X[5] <= 11.485\ngini = 0.5\nsamples = 2\nvalue = [1, 1]"] ;
199 -> 200 ;
201 [label="gini = 0.0\nsamples = 1\nvalue = [1, 0]"] ;
200 -> 201 ;
202 [label="gini = 0.0\nsamples = 1\nvalue = [0, 1]"] ;
200 -> 202 ;
203 [label="gini = 0.0\nsamples = 2\nvalue = [2, 0]"] ;
199 -> 203 ;
204 [label="X[1] <= 2.5\ngini = 0.386\nsamples = 245\nvalue = [64, 181]"] ;
0 -> 204 [labeldistance=2.5, labelangle=-45, headlabel="False"] ;
205 [label="X[0] <= 301.0\ngini = 0.074\nsamples = 130\nvalue = [5, 125]"] ;
204 -> 205 ;
206 [label="X[0] <= 285.5\ngini = 0.202\nsamples = 35\nvalue = [4, 31]"] ;
205 -> 206 ;
207 [label="X[5] <= 29.392\ngini = 0.161\nsamples = 34\nvalue = [3, 31]"] ;
206 -> 207 ;
208 [label="X[5] <= 28.231\ngini = 0.278\nsamples = 18\nvalue = [3, 15]"] ;
207 -> 208 ;
209 [label="X[2] <= 28.0\ngini = 0.208\nsamples = 17\nvalue = [2, 15]"] ;
208 -> 209 ;
210 [label="X[2] <= 22.5\ngini = 0.444\nsamples = 6\nvalue = [2, 4]"] ;
209 -> 210 ;
211 [label="gini = 0.0\nsamples = 3\nvalue = [0, 3]"] ;
210 -> 211 ;
212 [label="X[0] <= 224.0\ngini = 0.444\nsamples = 3\nvalue = [2, 1]"] ;
210 -> 212 ;
213 [label="gini = 0.0\nsamples = 2\nvalue = [2, 0]"] ;
212 -> 213 ;
214 [label="gini = 0.0\nsamples = 1\nvalue = [0, 1]"] ;
212 -> 214 ;
215 [label="gini = 0.0\nsamples = 11\nvalue = [0, 11]"] ;
209 -> 215 ;
216 [label="gini = 0.0\nsamples = 1\nvalue = [1, 0]"] ;
208 -> 216 ;
217 [label="gini = 0.0\nsamples = 16\nvalue = [0, 16]"] ;
207 -> 217 ;
218 [label="gini = 0.0\nsamples = 1\nvalue = [1, 0]"] ;
206 -> 218 ;
219 [label="X[5] <= 143.592\ngini = 0.021\nsamples = 95\nvalue = [1, 94]"] ;
205 -> 219 ;
220 [label="gini = 0.0\nsamples = 82\nvalue = [0, 82]"] ;
219 -> 220 ;
221 [label="X[5] <= 152.506\ngini = 0.142\nsamples = 13\nvalue = [1, 12]"] ;
219 -> 221 ;
222 [label="X[4] <= 1.0\ngini = 0.5\nsamples = 2\nvalue = [1, 1]"] ;
221 -> 222 ;
223 [label="gini = 0.0\nsamples = 1\nvalue = [0, 1]"] ;
222 -> 223 ;
224 [label="gini = 0.0\nsamples = 1\nvalue = [1, 0]"] ;
222 -> 224 ;
225 [label="gini = 0.0\nsamples = 11\nvalue = [0, 11]"] ;
221 -> 225 ;
226 [label="X[5] <= 23.35\ngini = 0.5\nsamples = 115\nvalue = [59, 56]"] ;
204 -> 226 ;
227 [label="X[10] <= 0.5\ngini = 0.486\nsamples = 94\nvalue = [39, 55]"] ;
226 -> 227 ;
228 [label="X[5] <= 15.373\ngini = 0.405\nsamples = 39\nvalue = [11, 28]"] ;
227 -> 228 ;
229 [label="X[5] <= 13.935\ngini = 0.471\nsamples = 29\nvalue = [11, 18]"] ;
228 -> 229 ;
230 [label="X[0] <= 435.5\ngini = 0.386\nsamples = 23\nvalue = [6, 17]"] ;
229 -> 230 ;
231 [label="X[0] <= 211.0\ngini = 0.153\nsamples = 12\nvalue = [1, 11]"] ;
230 -> 231 ;
232 [label="gini = 0.0\nsamples = 6\nvalue = [0, 6]"] ;
231 -> 232 ;
233 [label="X[0] <= 270.0\ngini = 0.278\nsamples = 6\nvalue = [1, 5]"] ;
231 -> 233 ;
234 [label="gini = 0.0\nsamples = 1\nvalue = [1, 0]"] ;
233 -> 234 ;
235 [label="gini = 0.0\nsamples = 5\nvalue = [0, 5]"] ;
233 -> 235 ;
236 [label="X[0] <= 686.5\ngini = 0.496\nsamples = 11\nvalue = [5, 6]"] ;
230 -> 236 ;
237 [label="X[0] <= 584.0\ngini = 0.278\nsamples = 6\nvalue = [5, 1]"] ;
236 -> 237 ;
238 [label="X[0] <= 538.5\ngini = 0.444\nsamples = 3\nvalue = [2, 1]"] ;
237 -> 238 ;
239 [label="gini = 0.0\nsamples = 2\nvalue = [2, 0]"] ;
238 -> 239 ;
240 [label="gini = 0.0\nsamples = 1\nvalue = [0, 1]"] ;
238 -> 240 ;
241 [label="gini = 0.0\nsamples = 3\nvalue = [3, 0]"] ;
237 -> 241 ;
242 [label="gini = 0.0\nsamples = 5\nvalue = [0, 5]"] ;
236 -> 242 ;
243 [label="X[2] <= 23.5\ngini = 0.278\nsamples = 6\nvalue = [5, 1]"] ;
229 -> 243 ;
244 [label="gini = 0.0\nsamples = 5\nvalue = [5, 0]"] ;
243 -> 244 ;
245 [label="gini = 0.0\nsamples = 1\nvalue = [0, 1]"] ;
243 -> 245 ;
246 [label="gini = 0.0\nsamples = 10\nvalue = [0, 10]"] ;
228 -> 246 ;
247 [label="X[5] <= 7.7\ngini = 0.5\nsamples = 55\nvalue = [28, 27]"] ;
227 -> 247 ;
248 [label="gini = 0.0\nsamples = 4\nvalue = [0, 4]"] ;
247 -> 248 ;
249 [label="X[5] <= 10.825\ngini = 0.495\nsamples = 51\nvalue = [28, 23]"] ;
247 -> 249 ;
250 [label="X[0] <= 9.0\ngini = 0.428\nsamples = 29\nvalue = [20, 9]"] ;
249 -> 250 ;
251 [label="gini = 0.0\nsamples = 1\nvalue = [0, 1]"] ;
250 -> 251 ;
252 [label="X[4] <= 1.5\ngini = 0.408\nsamples = 28\nvalue = [20, 8]"] ;
250 -> 252 ;
253 [label="X[2] <= 54.0\ngini = 0.384\nsamples = 27\nvalue = [20, 7]"] ;
252 -> 253 ;
254 [label="X[0] <= 545.0\ngini = 0.355\nsamples = 26\nvalue = [20, 6]"] ;
253 -> 254 ;
255 [label="X[5] <= 7.988\ngini = 0.208\nsamples = 17\nvalue = [15, 2]"] ;
254 -> 255 ;
256 [label="X[5] <= 7.91\ngini = 0.444\nsamples = 6\nvalue = [4, 2]"] ;
255 -> 256 ;
257 [label="X[0] <= 296.5\ngini = 0.32\nsamples = 5\nvalue = [4, 1]"] ;
256 -> 257 ;
258 [label="gini = 0.0\nsamples = 4\nvalue = [4, 0]"] ;
257 -> 258 ;
259 [label="gini = 0.0\nsamples = 1\nvalue = [0, 1]"] ;
257 -> 259 ;
260 [label="gini = 0.0\nsamples = 1\nvalue = [0, 1]"] ;
256 -> 260 ;
261 [label="gini = 0.0\nsamples = 11\nvalue = [11, 0]"] ;
255 -> 261 ;
262 [label="X[5] <= 8.367\ngini = 0.494\nsamples = 9\nvalue = [5, 4]"] ;
254 -> 262 ;
263 [label="X[0] <= 560.0\ngini = 0.32\nsamples = 5\nvalue = [4, 1]"] ;
262 -> 263 ;
264 [label="gini = 0.0\nsamples = 1\nvalue = [0, 1]"] ;
263 -> 264 ;
265 [label="gini = 0.0\nsamples = 4\nvalue = [4, 0]"] ;
263 -> 265 ;
266 [label="X[5] <= 10.179\ngini = 0.375\nsamples = 4\nvalue = [1, 3]"] ;
262 -> 266 ;
267 [label="gini = 0.0\nsamples = 3\nvalue = [0, 3]"] ;
266 -> 267 ;
268 [label="gini = 0.0\nsamples = 1\nvalue = [1, 0]"] ;
266 -> 268 ;
269 [label="gini = 0.0\nsamples = 1\nvalue = [0, 1]"] ;
253 -> 269 ;
270 [label="gini = 0.0\nsamples = 1\nvalue = [0, 1]"] ;
252 -> 270 ;
271 [label="X[5] <= 17.7\ngini = 0.463\nsamples = 22\nvalue = [8, 14]"] ;
249 -> 271 ;
272 [label="X[2] <= 41.5\ngini = 0.337\nsamples = 14\nvalue = [3, 11]"] ;
271 -> 272 ;
273 [label="X[0] <= 409.5\ngini = 0.26\nsamples = 13\nvalue = [2, 11]"] ;
272 -> 273 ;
274 [label="gini = 0.0\nsamples = 7\nvalue = [0, 7]"] ;
273 -> 274 ;
275 [label="X[0] <= 428.0\ngini = 0.444\nsamples = 6\nvalue = [2, 4]"] ;
273 -> 275 ;
276 [label="gini = 0.0\nsamples = 1\nvalue = [1, 0]"] ;
275 -> 276 ;
277 [label="X[0] <= 589.0\ngini = 0.32\nsamples = 5\nvalue = [1, 4]"] ;
275 -> 277 ;
278 [label="gini = 0.0\nsamples = 3\nvalue = [0, 3]"] ;
277 -> 278 ;
279 [label="X[3] <= 0.5\ngini = 0.5\nsamples = 2\nvalue = [1, 1]"] ;
277 -> 279 ;
280 [label="gini = 0.0\nsamples = 1\nvalue = [0, 1]"] ;
279 -> 280 ;
281 [label="gini = 0.0\nsamples = 1\nvalue = [1, 0]"] ;
279 -> 281 ;
282 [label="gini = 0.0\nsamples = 1\nvalue = [1, 0]"] ;
272 -> 282 ;
283 [label="X[3] <= 1.5\ngini = 0.469\nsamples = 8\nvalue = [5, 3]"] ;
271 -> 283 ;
284 [label="X[4] <= 0.5\ngini = 0.48\nsamples = 5\nvalue = [2, 3]"] ;
283 -> 284 ;
285 [label="gini = 0.0\nsamples = 1\nvalue = [1, 0]"] ;
284 -> 285 ;
286 [label="X[0] <= 448.5\ngini = 0.375\nsamples = 4\nvalue = [1, 3]"] ;
284 -> 286 ;
287 [label="gini = 0.0\nsamples = 3\nvalue = [0, 3]"] ;
286 -> 287 ;
288 [label="gini = 0.0\nsamples = 1\nvalue = [1, 0]"] ;
286 -> 288 ;
289 [label="gini = 0.0\nsamples = 3\nvalue = [3, 0]"] ;
283 -> 289 ;
290 [label="X[0] <= 322.0\ngini = 0.091\nsamples = 21\nvalue = [20, 1]"] ;
226 -> 290 ;
291 [label="X[0] <= 232.0\ngini = 0.245\nsamples = 7\nvalue = [6, 1]"] ;
290 -> 291 ;
292 [label="gini = 0.0\nsamples = 6\nvalue = [6, 0]"] ;
291 -> 292 ;
293 [label="gini = 0.0\nsamples = 1\nvalue = [0, 1]"] ;
291 -> 293 ;
294 [label="gini = 0.0\nsamples = 14\nvalue = [14, 0]"] ;
290 -> 294 ;
}
